-0.6001 -0.8213 -1.5322 -1.7334 -1.1406 -0.5518 -1.5127 -1.2295 -0.0340 -1.1758 -1.0342 0.0416 -1.6660 -1.7588 -2.1758 -0.9238 -0.8730 0.8008 -1.4521 -0.0289 1.5732 -0.7935 1.0137 1.6719 -0.2529 1.5977 1.9990 -0.8096 0.7173 -1.2109 -1.2539 -0.5547 1.5254 -1.0059 1.1328 1.6738 0.2756 1.9932 1.7549 0.5210 1.8965 1.9941 0.0105 1.3164 -0.1213 -0.0470 -0.3142 0.3381 1.0186 1.2676 1.6201 1.7988 2.1328 1.4346 1.6113 1.8330 1.6553 0.5527 1.4336 -0.9072 2.3105 -2.0605 -1.0430 1.9561 -0.5190 -0.2825 1.5879 0.5918 -0.4424 1.3467 -0.0023 -0.9399 1.2158 -0.9907 -1.9805 
-0.4358 -2.0625 -2.1523 
-0.0380 -1.3213 0.0074 0.3872 0.2158 0.1224 0.0049 0.1672 0.5610 -0.4351 -0.1074 -0.8237 0.3782 0.1210 -0.4299 -0.0589 -0.1030 0.2051 -0.6572 -0.2395 -0.0213 -0.9414 0.8770 -0.3242 -0.0379 0.4153 -0.1906 -0.2335 0.3936 0.3545 -0.9541 -0.4744 -0.1693 -0.3918 0.6948 0.0823 0.7788 -0.8408 -0.1552 0.9443 0.4370 0.1387 -0.4270 0.0537 0.6167 -0.4922 0.1783 -0.7202 0.3816 -0.0781 -0.4761 0.4480 -0.0035 0.4126 -0.1836 -0.1191 -0.0151 -0.5522 1.0908 -0.1770 -0.1061 0.3164 -0.5615 0.0800 -0.0806 0.4380 -0.7271 -0.0831 0.0912 -0.7876 1.0127 -0.2903 1.4219 0.1647 0.1481 0.9512 -0.5146 0.3010 -0.0022 -0.0439 0.6392 0.0041 0.2690 0.0947 0.4751 0.0515 0.6045 0.4592 -0.7603 0.4121 0.8438 0.0999 0.1208 0.2001 0.7920 0.0706 -0.2028 -0.0341 0.0526 0.3276 -0.2734 0.4116 0.0636 0.0426 0.2380 -0.2607 0.8359 0.2311 1.4512 -0.0853 0.1105 0.7607 -0.5732 0.0260 0.6968 -0.2771 -0.1060 -0.0001 0.3215 0.0897 0.5054 0.4336 0.3093 0.1256 -1.4746 0.1201 1.4688 -0.0920 -0.4375 0.3127 0.1427 0.6724 -0.0558 -0.0043 0.6421 0.1676 -1.1025 0.4387 1.1240 0.0504 -0.2988 0.1129 0.4102 0.3733 0.8428 -0.9990 -0.3669 0.3713 0.4104 -0.6079 0.5845 -0.3589 -0.3992 0.2539 0.3235 -0.4160 0.2109 0.1200 -0.4312 -0.0970 -0.2896 -0.3188 1.0264 -0.1046 -0.4922 0.3313 -0.1918 1.6660 -0.0753 0.2720 0.0001 -0.1522 -0.7905 -0.0777 1.2607 -0.2018 -0.3894 -0.0472 -0.1313 1.4697 -1.2432 -1.2988 -0.1752 -0.1714 0.0039 -0.1819 0.2791 -0.1198 0.2935 0.2217 -0.3708 -0.0734 -0.0007 -0.1848 -0.6758 0.1221 0.1798 -0.2644 -0.6719 -0.3828 -0.0675 -0.8164 0.6494 -0.7021 -0.0406 0.0729 -0.0072 -0.2056 0.5225 0.0165 -0.7422 -0.3933 -0.0615 -0.4883 -0.1937 -0.9277 -1.1562 -1.3760 -0.1289 0.0557 -0.8169 -0.2610 -0.9194 -0.4905 0.4700 0.0288 -0.3672 1.0176 0.2424 -0.7539 -0.8877 0.6196 -0.4458 -0.1327 -1.5801 -0.1852 0.2988 -0.8232 1.0996 0.1886 0.0173 -0.2778 -1.0576 0.5034 0.2454 -0.1359 -1.4492 -0.5361 -0.0465 -0.9717 0.8784 -0.0737 -1.2402 -1.0586 0.1373 -0.2228 -0.9087 -0.1847 -0.1388 -0.2334 0.2468 -0.3232 -0.3789 1.1191 0.1924 -0.7373 0.5508 0.2421 -2.0527 -0.0461 0.1445 0.2949 -0.0458 -0.4968 1.5029 0.7456 0.2137 -0.7007 -0.1671 0.6567 -1.0020 0.1036 -0.6401 -0.2111 0.4163 -0.6992 1.1934 0.5889 -1.3848 -1.1426 -0.0424 -0.6440 0.6421 -0.3049 0.2554 -0.0527 -0.6582 -0.3411 -0.0108 -0.2330 0.0541 -1.0215 0.5249 -0.2815 -0.3840 -0.8047 1.2568 -0.1299 -1.0850 -0.1332 1.0449 1.3193 0.2286 -1.0928 0.6890 0.1444 -1.6875 0.0635 0.9604 -0.2920 -0.5781 -0.2373 1.1309 1.0371 -1.1885 -0.6719 -0.6797 -0.4919 1.5459 -0.3672 -0.1271 -0.0614 -0.0314 0.1809 0.4060 -1.5186 -0.4880 -1.3652 -0.5039 -1.2490 0.8159 -1.2930 0.8130 -0.6460 -0.4717 0.2932 1.0078 1.2500 0.1393 -1.1553 0.3328 -0.5708 0.2651 -0.8042 1.2461 -0.7314 -0.9263 0.0756 0.5259 1.4424 -0.4375 0.0949 -0.3108 0.1442 -0.3203 -0.1009 -0.0055 0.6025 0.4714 0.6021 -0.5732 0.2839 -1.5742 -0.3318 -0.8765 -0.0360 0.4243 -0.8027 -0.3806 -0.3103 -0.1665 -0.2173 -0.6270 0.0623 -1.4463 -0.2114 -0.4463 -0.4309 0.7539 -0.4885 -0.0926 -0.3232 -0.1479 -0.0452 -0.9893 -0.6885 -0.2236 -0.2793 0.4551 -0.5166 -1.2852 -0.1981 -0.6719 -0.0774 0.5039 0.7080 -1.4844 0.5479 -1.8760 -1.1680 -0.4536 -0.6890 -1.7148 -0.6104 -1.6934 -1.0684 0.2666 -0.6099 -0.9009 0.9365 -2.0020 -1.0225 -1.0234 -0.0923 -0.2952 -0.7671 -1.4297 -0.9487 0.1180 -0.5977 -0.5239 0.9204 -0.0503 -0.1245 0.5742 -1.2139 0.1781 0.0429 0.4226 -0.5244 -0.4541 0.2024 -1.8350 -0.5083 -1.9463 -1.1680 0.7437 -1.4473 -1.1172 -0.6567 0.0715 -0.6475 -0.4419 -0.8184 -0.4939 0.9487 -2.0371 -1.8545 0.1310 -0.9365 -2.1738 -0.5352 -0.7812 -1.1035 -0.0338 -0.8740 -0.2766 0.9390 0.2864 0.7817 -0.2798 -0.2629 1.6973 0.2878 -0.2410 -0.5991 -0.6860 -0.3916 -1.5703 -1.4463 -1.3369 -0.9370 0.2307 -1.3418 0.4539 -0.7134 0.7808 -0.8091 -1.4209 -0.6631 -0.0566 0.6963 -1.8086 -1.5977 0.9526 -1.2979 -0.5464 -0.6733 0.8525 -0.8364 -0.9541 -0.8062 0.1862 0.9141 0.2460 1.5439 -1.2314 0.7446 0.6172 0.6646 -0.7788 0.0915 0.6553 -0.1886 -1.0645 -1.8672 -0.9111 0.0663 -1.2383 -1.1621 0.4177 -0.6099 0.2197 -1.0137 0.1672 -0.0344 0.2151 -0.2954 -0.9409 -0.7759 -0.1871 -1.3984 0.6152 -1.1494 0.3643 -1.1768 -1.1172 -0.4062 0.5249 0.2034 1.0469 0.5029 -0.0908 1.0410 -0.3523 0.2041 -0.5029 1.4062 0.7280 0.5093 0.6577 0.0123 -0.1771 0.5356 -0.7354 0.1937 -0.0130 -0.9199 -0.4580 0.4915 0.2303 0.0360 -1.3262 -0.0079 -0.3748 0.8950 -0.6562 0.0704 0.5566 -0.6719 -0.1936 0.7251 0.2224 0.1113 -1.8359 -0.3127 1.2871 0.3059 0.5747 0.8594 -0.7827 0.4321 -0.4172 1.5322 0.0106 0.6655 0.5659 -0.9009 -0.1562 0.0420 0.3462 -0.5107 -1.4160 -0.5078 -1.0049 -0.4126 0.1188 -0.2028 -1.7725 0.0415 -0.3560 0.1223 -0.4299 -0.6685 -0.9053 -0.8901 -0.8853 -0.5137 0.2520 -0.0256 -2.1426 0.3306 1.3672 0.7661 -0.0138 1.3730 0.7314 0.4597 0.4182 0.9048 -1.0615 0.7373 0.4250 -1.0771 0.2323 0.3875 0.8462 -0.5186 -0.0177 -0.2773 0.3384 -0.8228 -1.2656 -0.5103 -1.2275 -0.7935 -0.3665 -0.0365 0.7671 -0.9521 -1.3848 -0.4753 -0.3242 -1.1270 -0.5454 -0.4661 -1.8994 -0.7129 1.0127 0.8379 -1.1104 1.2383 0.6201 0.3176 -0.3960 0.5093 -0.3596 0.3293 0.3027 -0.1840 0.4529 0.8628 -0.0954 -0.1776 0.1427 -0.0380 0.3723 -0.9834 -0.9370 -0.9565 -0.8877 -0.9438 -0.0959 0.5439 0.6616 -0.2859 0.2159 -0.4124 0.6699 -1.3438 -1.4170 -0.9038 -1.3145 -0.8330 0.4565 0.3411 -1.0342 1.0371 -0.4133 0.5649 -0.7778 0.8193 0.7349 0.1831 -0.1832 0.0975 -0.1887 0.7471 -0.8735 -0.1909 0.4553 0.1995 0.0910 -0.4272 0.3350 -0.7427 -0.9233 -0.5410 0.1203 0.8960 -0.7114 -0.5015 0.1191 -0.2524 0.3928 -0.8691 -0.4353 -0.9409 -0.5396 -0.9893 0.2352 0.1278 0.2556 0.6616 0.4131 0.4668 0.0208 0.2356 0.2095 0.4246 1.2256 -0.3159 0.2957 0.3689 -0.3406 0.6572 -0.0923 -0.3325 0.1227 1.0889 0.4177 -0.0044 0.0702 -0.0222 0.4639 0.6631 -0.2949 0.7646 0.5703 -0.4165 -0.0314 1.1074 0.5947 0.2419 -0.0954 -0.2150 -0.1614 0.1548 0.3191 0.8521 0.4912 0.5806 -0.1964 0.6865 0.1949 0.2751 0.9897 -0.8369 0.2659 0.3296 0.5347 0.8076 -0.6157 -0.1355 -0.4602 1.0225 -0.1975 0.0120 -0.0097 -0.6309 0.4290 0.5010 -0.0095 0.4355 -0.6797 -0.4185 -0.2751 0.6392 0.1841 0.0964 -0.0778 -0.2430 -0.3428 0.0586 -0.2156 1.1699 0.7368 0.5098 0.3379 0.9395 -0.1256 0.3882 0.8599 -0.0745 0.0970 0.6611 0.7021 1.1484 -0.3777 -0.0390 0.1299 0.5962 -1.1357 -0.0188 -0.0460 -0.5859 0.1555 0.5518 0.9253 0.7856 -0.4993 -0.3384 0.0948 0.4011 -0.6943 0.1857 -0.2952 -0.9746 -0.6548 -0.0937 -0.9272 0.6655 -0.1925 0.4231 -0.0438 0.9595 0.3223 0.7300 0.3459 0.6011 -0.0604 0.4836 -0.3477 0.1984 -0.4810 -0.3120 0.0596 0.2329 -0.7500 -0.2935 -0.1058 0.1442 -0.0077 0.5049 0.5327 0.5156 -0.3169 -0.3152 0.1650 0.2117 -1.1582 -0.2007 -0.2474 -0.5288 -0.4519 -0.0558 -0.6865 0.9692 -0.1943 0.3484 -0.2257 0.7065 0.4348 0.7847 -0.3164 0.1129 -0.8491 0.2771 -0.7080 0.3574 0.3762 -0.0848 0.1974 0.3164 0.1998 -0.2922 -0.7168 -0.2847 -0.2620 0.4834 -0.4604 -0.0295 -0.3086 -0.3879 0.3765 0.1162 -0.4946 -0.4241 -0.3347 -0.1486 
-0.2035 -0.5586 -0.3877 -0.1660 0.4243 0.5981 -0.0436 -0.1243 0.4250 0.3679 0.3982 -0.0587 
0.0365 -0.1788 0.8228 1.6895 -0.6743 -0.9019 -0.5806 0.2368 -0.0145 -0.2686 0.3567 -0.7842 0.9990 0.0749 -0.4380 -0.9673 0.0245 -0.4734 -0.1494 1.0352 0.5366 -0.3928 0.1636 -1.0000 -0.0065 0.0979 0.8647 -1.2822 0.2598 0.8359 -0.4753 -0.2998 0.4048 0.1584 1.2812 -0.4749 0.9053 -0.7861 0.2598 -0.7217 0.1742 0.8398 0.2433 -1.2354 0.3723 1.0273 0.2888 -1.2188 -0.2529 0.1881 0.1517 -0.1175 0.6108 -0.1704 -0.5645 0.3801 0.0830 -0.6851 0.0607 0.6143 -0.0652 0.3184 0.6421 -0.2881 0.3364 0.1582 0.4165 -1.0674 0.0901 -0.5732 0.4944 0.2371 0.6851 -0.2312 -0.3052 -0.0825 0.1307 -0.1920 -0.2205 -0.3357 0.1638 0.0289 0.2111 -0.6099 -0.4373 0.5068 0.4312 -0.4211 0.2017 0.0550 0.1768 0.2920 0.2500 -0.4258 -0.0529 0.1329 -0.1200 0.0028 0.3071 -0.5342 -0.0877 0.4136 0.5767 1.1074 -0.8022 -0.1055 -0.8032 1.3564 -0.2500 -1.1680 -0.2363 -0.5210 0.3662 0.0302 -1.4434 -0.2163 -0.0837 -0.0553 1.1807 1.1729 0.1014 -0.4268 0.5640 1.5967 -1.0703 -0.3857 -1.2178 0.8218 0.0759 0.0561 0.4287 0.0367 0.0821 -0.4038 -1.1953 0.5430 0.2295 0.4421 -0.4131 0.2908 0.0824 0.7817 0.3467 -0.5767 0.6245 -0.2004 0.9614 -0.1714 -0.7061 -0.8281 -0.3706 -0.0264 0.2766 -0.6855 1.8174 -0.0623 1.0215 -1.1162 0.0948 -1.1660 0.0978 0.5459 -0.1610 -1.7471 0.4619 1.2295 1.5713 -1.1738 -0.4500 0.1602 0.3472 0.6694 0.0126 -0.2408 -0.6748 0.6104 -0.1715 -0.2515 -0.1114 0.0811 -0.2170 1.0410 0.5293 0.8979 0.8462 -1.9932 0.5527 -0.8008 0.3000 -1.1006 0.2754 0.3303 -0.0907 -0.9351 0.8721 0.0250 0.8799 -0.0413 -0.1390 -1.2520 0.0988 0.4744 -0.5801 -0.4756 0.6602 -0.2437 0.8813 -0.3887 -0.1366 -0.4712 0.0959 0.1964 0.3601 0.0671 -0.1589 -0.2876 -0.2408 0.2776 0.0057 -0.3333 0.1709 -0.7559 1.4570 1.5840 -1.3281 0.0613 -1.3486 1.2070 -0.1621 -0.1697 0.7954 -0.6904 -0.5889 -0.9990 -1.5186 0.7456 0.1888 -0.4409 1.0293 1.2598 -0.0815 -0.6108 -0.0502 -0.0711 -1.1895 1.2021 -0.2654 0.9282 0.7236 -0.1038 -0.2495 0.1617 -0.4534 -0.5488 -0.6670 0.6797 1.1396 0.8169 -0.1138 -0.7451 -0.2585 0.6548 -0.5020 -0.2856 1.3828 0.2240 0.6050 0.4863 -0.5386 -1.2266 0.0037 0.4685 0.7358 -0.5474 1.0986 -0.5815 0.3374 -1.3926 0.7031 -0.7754 -0.3347 1.2305 -1.0410 -0.4331 1.8789 -0.4456 1.6162 -0.4968 -0.2450 -1.6191 0.2065 0.1426 0.0001 -0.2194 -0.1028 0.5532 -0.0836 0.0940 -0.0814 -0.1205 -0.0464 1.5605 0.3442 1.2559 1.3516 -2.0176 0.3074 -0.6538 -0.2974 -1.5420 -0.5630 0.1018 0.3416 -0.2986 0.7935 0.1923 1.4453 0.0589 -0.4500 -1.4795 -0.4380 1.7490 -0.0118 0.5234 0.2400 -0.7305 0.3525 -0.0244 -0.6880 -0.4006 0.1798 -0.4468 1.1787 0.0701 -0.5923 -0.3979 0.2374 0.1805 -0.1887 -0.1133 0.3882 -1.0088 1.1348 0.4878 -1.9639 0.5200 -0.8623 0.8696 -0.0781 0.6802 -0.2983 -0.0784 -0.6470 -0.2037 -0.8154 1.0234 1.2344 -0.7139 0.4897 0.0169 -0.4451 -0.0801 -0.5811 -0.5493 -1.2783 1.9990 1.4971 0.0815 -0.1202 -0.1768 -0.0500 0.0717 -0.5034 -0.1249 -1.3350 1.1377 1.8711 0.0681 -0.4138 -0.5352 -0.4421 0.7446 -0.2092 0.2605 1.3662 -0.6528 0.2155 0.3313 -0.3594 -1.0186 0.5029 -0.0142 1.2188 0.4973 0.0185 -1.8867 -0.0605 -1.3037 0.6050 0.6421 -0.6606 1.7744 -0.7871 0.9023 1.2627 -1.2217 -0.0370 0.4612 -0.6250 -1.2217 0.0033 0.5142 0.3103 0.1498 -0.6553 -0.0137 0.4475 -0.0059 -0.2971 0.2051 0.4104 0.7832 0.2830 0.2700 0.8809 -1.1904 0.3386 -0.4531 0.0314 -1.0059 -0.5239 -0.0692 -0.2181 -0.7041 0.4441 0.5386 1.1143 0.0598 -0.6792 -0.3911 -0.2651 0.1532 0.1764 0.4841 0.7036 -0.8398 -0.0163 0.6055 -0.4963 -0.2715 0.6499 -0.1344 1.3740 0.0855 -0.5684 -1.0361 0.4143 -0.1689 -1.0762 0.6055 -0.2637 -0.9492 -0.1151 -0.2891 -1.9590 1.8633 1.7578 -0.4246 0.1188 0.2751 -1.0547 0.5942 -1.4736 -0.6992 1.5742 1.5820 0.8374 0.0758 0.1796 -1.2930 -0.7739 0.5254 1.8740 1.7041 -1.0596 -0.2433 -0.9429 1.6631 -0.5483 -1.3447 -0.0213 0.2727 2.1543 0.9268 -0.4709 -0.5776 -0.6104 1.4736 -1.0469 -2.1523 0.1121 0.1271 0.1659 -0.5518 -0.0837 -0.1749 0.8809 0.3794 -0.5444 -0.3159 -0.0367 0.4238 0.1120 0.4961 0.0337 0.0474 0.0046 -0.6802 0.9888 -0.9443 0.3835 0.4272 -0.8105 0.2316 -0.0238 0.6489 0.4451 -0.5864 -0.8296 0.4128 -0.2015 0.3281 0.3984 0.4978 -0.3206 0.2081 -0.1170 0.7480 -0.9165 -0.5674 -0.3552 -0.3586 0.5015 1.5957 -0.0424 -0.0854 -0.0347 0.0284 -0.3413 -1.0098 -0.7178 0.8867 0.3538 -0.1852 -0.4377 0.6191 -0.4861 0.1241 0.2252 -0.1487 0.1023 0.4170 -0.2817 0.2140 -0.4343 -0.3147 0.6489 -0.5142 -0.3999 0.7686 -0.6548 0.0168 -0.5552 -0.3628 -0.2769 1.0977 -0.3171 -0.1617 0.6670 0.1890 -0.7090 -0.3916 1.9160 1.9941 -0.6353 0.2827 -1.3682 0.3345 0.4932 -1.6689 0.7798 0.4414 -0.4302 -0.9287 -1.1016 0.2688 -0.6099 -0.2827 0.6514 1.1621 -0.5142 -0.5454 1.1260 0.9883 -0.5708 0.7515 -0.5195 0.5200 -0.9243 -0.1091 -0.6499 -0.1191 0.7505 -0.1685 -1.0352 -0.3318 0.1383 0.9346 0.0760 -0.1696 0.2954 0.0379 -0.0687 0.0567 -0.2350 0.0872 0.3889 0.2717 0.0664 -0.7441 0.7222 -0.3997 0.7632 -0.4363 -0.0335 -0.2607 0.6782 0.1989 -0.1004 -1.0996 0.2042 0.6914 -0.4841 0.6509 -0.6128 -0.4104 1.3926 -0.0556 -1.3516 -0.1013 0.1191 0.2710 0.0691 0.2114 -0.0318 -0.1176 0.1144 0.1039 -0.7305 0.1436 0.0536 0.7363 -0.1608 1.5576 -1.0771 -0.7041 -0.6748 0.2054 0.1385 -0.1360 -0.1414 -0.8237 -0.2803 -0.6465 1.5273 -0.4429 0.1022 -0.6724 -0.3003 1.4941 0.3721 0.0504 -0.4856 -0.4099 0.5903 -1.0293 -0.0098 1.1133 -0.4563 0.3560 0.0354 -0.2159 0.1399 -0.2644 0.2607 0.2424 -0.3975 -0.2294 -0.0136 0.0720 -0.0613 0.0567 1.1299 0.3572 -0.3618 -0.2347 -1.3350 0.7437 0.2954 -0.6655 1.2822 0.5264 -0.9971 0.0859 -0.1201 0.3560 -0.7363 0.1581 -1.0430 0.8291 -0.7407 -0.6392 -0.2350 0.5229 -0.6768 0.5220 0.3022 0.6152 0.0403 0.1348 -0.5786 -0.3538 -0.1451 -0.4761 0.0607 0.3687 0.5801 -0.9990 0.3960 1.3584 0.1273 0.6592 0.2969 0.3818 -0.2229 -0.6343 0.0846 0.8813 -0.4268 -0.7485 0.9746 0.8179 0.4517 -0.9404 -0.2664 0.0617 -0.2285 -0.7148 0.3870 -0.8804 0.0914 0.0368 0.1027 0.2469 0.9629 -1.0635 -0.2581 0.4041 -0.1991 -0.3552 0.3682 0.2004 -0.5005 -0.2925 -0.0361 -0.2430 -0.0574 0.2588 -0.2198 0.2181 0.4990 0.4783 0.9585 0.4934 0.0361 -1.6855 -0.5000 0.7656 -1.3896 0.2078 0.0694 -0.8057 0.4341 -0.6245 0.3093 0.3970 0.6909 -0.7412 0.7471 -0.7339 -0.1266 0.2573 1.1533 -0.4500 -0.4941 -0.2444 0.1893 -0.2585 -0.2251 0.0104 0.4456 -0.0039 0.0127 -0.3193 -0.2703 0.4094 0.0777 -0.1963 -0.2539 -0.2072 0.4165 -0.9199 0.0718 -0.4194 -0.0544 0.7305 -0.4568 2.1309 -0.4749 -1.0625 0.2961 -0.5459 -0.3484 1.1191 -0.7144 -0.3518 0.0957 -0.7544 0.9517 0.9482 -0.4651 -0.8784 -0.4165 0.4038 -1.3047 1.4014 1.3887 -0.1753 -0.0060 0.3140 -0.6182 0.2284 -0.8457 0.4548 0.1248 1.1885 1.4131 0.3115 -0.2742 -1.3594 -0.1915 0.2473 0.5396 -0.1979 0.6123 -1.4336 -0.6030 -0.2993 0.3684 0.9067 0.4658 0.1791 0.4709 -0.0945 -0.5967 0.1445 -0.5571 -0.8960 -0.5088 1.0049 -0.0474 1.1240 0.5273 -0.5293 0.1493 -1.9590 -0.4365 0.2781 0.2047 0.6626 -0.5005 -0.2169 -0.0448 0.0724 -0.3611 0.3582 0.9346 -0.1216 -0.3206 0.5464 1.4102 0.2030 0.3811 -0.6626 -0.0074 -0.0305 -0.3557 -0.3730 0.1324 -0.1196 -1.0352 0.0890 0.3499 -0.4829 1.2295 0.5034 -0.3616 0.4226 0.4001 -0.7988 0.1929 0.3638 0.3650 -0.3025 0.5610 -0.9268 -0.4646 -0.1177 -0.1571 0.7280 -0.0583 0.6733 -0.2717 -0.3406 -0.6924 0.4592 0.4268 -0.1685 -0.3350 0.2371 0.2299 -1.2686 -0.1826 0.0578 -1.0654 0.5312 0.8770 0.7715 0.8813 -1.2480 -0.5010 -0.8730 0.2183 1.1289 -0.5107 0.0341 -1.0078 -0.2793 1.8945 -0.3662 -1.5811 0.0837 0.7988 0.6499 0.5737 1.1387 -1.2559 0.7148 -0.3513 -0.3025 -1.3486 -0.0692 1.8271 0.3535 -0.4900 0.1890 -0.6602 0.8999 1.0039 -1.0303 -0.4729 0.1792 0.6802 -0.9048 -0.4368 -0.1844 -0.0243 0.1906 0.9917 -0.1830 -0.4756 0.1216 -0.0401 0.5308 0.2126 0.1674 -0.5635 -0.2472 0.5483 -0.0606 0.5059 0.7583 0.2505 0.2517 -0.1014 -0.9565 0.4407 1.3203 -0.7515 -1.3496 -0.5581 0.3813 1.0938 -0.6328 -0.3276 -0.1573 -0.0737 0.7197 -0.0192 -0.1394 -0.3564 -0.4531 0.1222 0.8506 -1.0537 0.2209 -0.2122 0.5820 0.8662 -0.8867 -0.5474 0.7739 0.1678 1.1084 0.1598 0.4277 -0.9360 -0.7588 -0.8467 0.6001 0.1414 0.2925 0.3247 -0.2810 -0.0325 -0.4771 0.0360 -0.2094 -0.0257 -0.5991 -0.3667 0.4578 -0.7305 0.6294 0.1409 0.6763 -0.5322 -1.0635 -0.1803 0.9121 -0.9990 0.3618 -1.0928 1.5537 -0.2668 1.0469 -0.8799 1.0518 0.4089 -0.8276 0.7148 -0.3921 0.4060 -1.6631 0.5117 -0.4111 -0.0344 -0.0149 0.5474 0.4243 -0.7393 -0.8423 -0.3918 0.9009 0.7817 0.6421 -0.9551 -0.3176 -1.0947 2.1230 -0.2529 0.6455 0.1819 0.0240 0.3555 -0.1216 0.0180 0.0273 -0.8496 0.9458 -0.1305 0.1041 -0.0280 -0.4358 0.3125 -0.4944 -0.0995 0.7827 -0.0644 0.1288 1.9102 -1.1787 -0.2937 -0.2520 -0.5454 1.4062 0.2947 0.1940 -1.1953 -0.4116 0.2061 0.8525 0.4614 -0.5566 -0.2476 -1.0596 0.4897 1.9287 -0.2520 -1.5703 -0.0737 0.2134 0.4697 -0.4546 -0.1487 0.3901 0.0113 0.3794 -0.1792 -0.0415 -0.9927 1.0830 -1.5117 1.7031 -1.1152 -0.1642 -0.5884 1.7939 0.3674 0.2683 0.7349 0.0013 -0.5723 0.9102 -0.2462 0.6562 -0.1367 -0.4575 -1.2939 0.6294 0.4229 0.1738 -0.1517 -0.8203 -0.2646 -0.0596 0.3882 0.7729 0.8755 -1.0254 0.2122 0.0328 0.0132 0.0240 -0.0329 0.3762 -0.1240 -0.3464 -0.3796 0.6089 -0.9688 -0.1825 -1.3291 0.5586 0.7515 0.1300 -0.7402 1.3467 0.4980 -0.2169 -0.2214 0.1503 0.4497 -0.2407 0.2732 -0.7090 -0.1111 -0.1924 0.3926 0.6406 -0.7070 -0.5020 -0.9590 0.7627 0.7910 0.6729 0.0073 -0.1163 -0.3042 0.6069 0.0791 0.2043 -0.1366 -0.0429 0.2864 -0.3511 0.1511 0.0666 -0.5073 -0.0560 0.0087 0.4561 0.7437 -0.7178 0.0084 -0.1770 -0.3047 0.7681 -0.9570 0.0349 0.8110 0.9585 -0.9731 -0.1079 -1.3936 0.9194 0.0430 -1.8027 0.7925 0.5049 0.6030 0.0883 1.0225 -0.5000 -0.2646 -0.9653 -0.1488 0.7617 -0.6138 -0.2576 0.0632 0.2097 -0.3562 -0.0939 -0.0454 -0.4636 -0.1652 0.0616 0.1698 0.1997 0.6548 -0.3909 -1.2002 -0.3804 0.3945 0.6284 -0.5981 0.7856 -0.2024 0.5239 -0.1130 0.7363 0.1486 -0.3574 -0.0511 -0.0069 0.2625 0.1647 -0.8306 -0.4944 0.0066 0.5503 0.5513 -0.7222 -0.0301 0.3718 -0.2539 0.6006 -1.4873 0.5723 0.7104 0.2102 0.0708 0.0591 0.0357 0.3904 -0.0496 0.0272 -0.4314 -0.5732 -0.7148 -0.9780 -0.6899 -0.5039 1.2129 -0.1500 -0.7510 -0.5522 0.6089 2.0938 -0.1685 -0.8569 0.8906 -0.2961 0.7007 -1.8613 -0.5889 0.6440 1.0703 0.1953 -0.3481 0.1853 0.4414 -0.1721 0.6562 -0.0873 -0.0626 0.3889 0.1450 -0.7554 -0.4119 0.9429 1.1162 -0.3604 -0.0475 -0.3516 -0.5381 -0.5088 0.6206 -0.6851 0.7124 0.0277 -0.2466 -0.5210 -0.0510 -0.4492 0.1171 0.5063 -0.9624 0.8550 -0.3538 -0.3757 -1.4805 0.6235 -0.8496 1.1582 0.1554 -0.8433 1.3262 0.7422 0.1090 0.5620 0.5771 -0.7144 0.0393 -0.8159 -0.5405 -0.2964 -1.3369 2.1562 -0.4565 0.2515 0.2742 -0.0446 0.1697 0.4678 -0.2808 0.0280 -0.2300 0.0591 1.5225 0.3923 -0.9932 -0.7480 -0.4885 0.1129 0.3113 -0.3621 0.1359 -0.0613 -0.7500 0.1782 1.6055 -0.7920 -0.2065 0.2668 -0.7983 -0.9995 0.8110 0.3865 0.0283 -0.4441 0.1434 0.1725 -0.0735 0.3862 -0.1442 -0.5918 -0.2413 0.2416 -0.5088 0.1272 -0.1569 -0.0651 -0.2874 1.1641 0.3179 -0.1891 -0.0892 -0.0654 -0.5020 0.4138 0.2888 -0.4314 1.2295 -0.2705 -0.2566 0.2747 0.0807 -0.3433 0.5957 -0.6060 2.2109 -0.8979 0.2008 -1.4014 0.1058 -0.1561 0.4709 -0.0947 -0.4177 0.3149 -1.2461 1.1152 0.5713 1.0498 -0.9980 0.4031 -1.5127 0.8638 -0.8467 0.2991 -0.1874 1.4043 0.4780 1.4414 -0.8979 -0.1744 -1.9463 0.9238 -0.1163 0.1683 0.2488 -0.9985 0.1794 -1.0020 -0.0026 0.7354 0.0778 0.6313 -0.4902 0.0259 -0.6582 -0.3560 0.9492 -0.5903 -1.2812 1.0967 0.4065 1.1006 -0.0563 -0.1254 1.3594 -1.3955 0.5254 -1.3076 -0.0091 0.6709 1.0410 -0.5708 -0.3333 0.2130 0.5200 -0.5996 0.9834 -0.1033 -0.3784 0.6636 -0.0948 -0.3367 0.0656 -1.1377 -0.6919 -0.3074 -0.0180 -0.0094 0.4048 0.2494 0.3215 0.8843 -0.6431 0.3887 -0.2581 0.9863 0.6562 -0.5332 -1.0361 0.6816 -0.7563 0.6577 -0.6924 0.3975 0.4795 -0.4026 0.6978 -0.4866 -0.3943 1.4795 -0.1444 -0.2085 -0.1481 -0.3591 -0.1842 0.4634 -0.3440 -0.7227 0.0297 0.5996 0.0445 0.6401 -0.4102 -1.3330 -1.3379 0.9028 0.2639 0.7192 1.2725 0.9370 -1.3057 0.3875 0.0006 -0.2610 0.4080 -0.5654 -0.4556 0.1098 0.6309 -0.8037 0.8599 0.0777 -0.2544 -0.5151 0.0559 1.0869 0.2161 1.1826 -0.9966 -0.8804 -0.7490 0.9282 0.0310 -0.1965 -0.1186 1.3340 -0.6851 1.1826 -0.3125 -1.0244 -0.4270 -0.1069 -0.6777 0.3901 -0.5444 -0.4553 0.5703 -0.8350 -0.1340 0.7080 0.2981 0.3313 0.0397 -0.5508 -0.6157 0.5688 -0.3433 0.3342 -1.0557 0.0587 0.5654 0.6309 -0.6343 0.2876 0.6406 -1.1553 0.3550 -0.8413 -0.4099 2.0566 -0.2104 -0.1055 -0.2328 -0.1769 1.1455 0.2810 -0.0784 0.2534 -0.5249 -0.3604 -0.3364 -0.0440 -0.9463 0.7993 -0.3955 0.3186 0.6475 -0.2440 -0.3284 -0.0938 -0.1173 0.8530 -0.0358 -0.0401 0.0687 1.0488 -0.4673 0.6685 -0.6768 -0.2671 -0.4243 -0.0598 -0.3718 1.1133 -0.7588 -0.1509 0.3003 -0.0815 -0.7476 1.4180 -0.9624 0.6128 -0.1624 -0.1110 0.0217 0.1603 -0.0468 -0.0576 -0.2827 0.6353 -0.2776 0.1350 -1.1953 0.1276 -0.5737 0.7329 0.5474 0.4648 -0.5239 0.4670 -1.1826 0.6445 -0.8423 0.8857 0.1693 -1.6416 1.6396 -0.5557 -0.6440 0.4888 0.5098 -0.1979 0.2048 0.1035 0.4282 0.2849 0.5840 0.4988 -0.2465 -0.7998 0.1757 -1.0098 0.2347 0.3936 0.5029 0.1765 -0.3831 0.4900 0.1332 -0.6050 0.3645 -0.9888 -0.2744 0.0309 -0.3650 -1.1250 0.9009 0.0199 -0.3647 1.4082 -0.8984 0.7129 -0.1758 -0.8330 -1.1953 0.3091 -0.2256 0.6978 -0.6260 0.0787 1.2520 0.6313 -0.3479 0.9893 -1.0000 -0.3726 0.2416 0.5034 -0.4143 1.5312 -1.3525 0.8735 0.4219 0.2832 0.4937 -0.0925 -0.3162 0.0048 -0.0805 -0.3013 -0.4180 -0.2035 -0.9141 -0.1164 0.0898 -0.3176 0.1556 0.3372 -0.7964 0.0157 -0.2478 1.5215 0.3904 -0.4312 0.4119 -0.7109 -0.3279 0.1257 -0.3772 0.6670 0.2781 0.8125 0.3423 -0.9302 -1.3887 0.1436 -0.4893 0.6543 -0.1547 0.7998 0.2362 0.6484 0.0309 -0.1678 0.2255 -0.1066 -0.2676 0.3892 -0.0765 0.0504 -0.0016 -0.0817 -0.6953 0.3633 -0.0862 -0.3481 1.5127 -0.2725 -0.7617 0.0878 -1.5605 1.6904 0.7788 -0.8018 1.0537 -0.5659 0.4568 -0.1892 0.0533 0.5547 -1.1855 -0.1407 0.6709 -0.0415 1.3750 -0.8276 0.3889 -0.0646 -0.2340 0.3369 -0.5063 -0.8657 0.0873 0.4319 1.8438 -1.1348 1.0449 -0.6665 -0.5312 0.2347 -1.0596 0.1377 0.0710 -0.2444 -0.9248 0.3342 -0.0564 0.2568 0.0994 -0.0684 0.0889 -0.1237 0.1444 -1.1816 -1.7627 0.4802 -0.5791 0.6440 0.1287 0.2961 1.1133 0.8276 0.6694 -0.9678 -2.2070 0.5059 -0.2622 0.8750 0.1094 0.6201 0.0473 0.6787 0.5947 -0.2274 -0.4368 -0.2239 -0.5391 0.0609 0.0727 0.4163 0.0706 0.1044 0.6045 0.3555 0.0052 -0.3430 -0.2620 0.1372 -0.6729 -0.3684 0.6274 -0.4885 0.1034 -0.6187 -0.0609 -0.9590 0.0818 -0.2163 0.0729 0.7686 0.3538 0.6055 0.3855 -0.1709 -1.7393 0.6968 -0.5503 0.5044 0.1272 0.8462 0.3313 -0.3682 -0.3826 0.3369 -0.2378 0.1799 0.1393 0.1547 -0.4783 -0.1140 -0.2786 0.2089 0.8076 -1.0781 0.5210 0.2195 -0.0884 -0.1638 0.1699 0.5024 -1.0957 0.7163 0.7373 -0.0043 0.2208 0.4031 -0.5327 -0.3813 0.7720 0.1478 -0.0316 -1.6387 
0.7510 -1.2119 0.0599 -0.0584 -0.0139 -0.0134 0.3254 -1.1172 1.6250 -0.1847 